[[[[ 2.71697566e-02 -7.03450143e-02 -5.03887571e-02 ...  2.43352219e-01
     2.73565985e-02 -4.30433117e-02]
   [ 8.78712013e-02 -1.49613634e-01 -4.06103246e-02 ...  8.91450569e-02
     3.44927236e-02  2.57809069e-02]
   [ 2.11441480e-02  1.00077897e-01  6.88223168e-03 ...  3.13247085e-01
    -1.57068297e-02  3.59812379e-02]
   ...
   [ 1.78226940e-02  6.26002252e-02 -1.03178926e-01 ...  3.04165967e-02
    -4.66160886e-02 -7.30789080e-02]
   [-2.60495126e-01 -6.81552067e-02 -2.01788351e-01 ... -4.94284034e-01
     2.63256226e-02  2.88436748e-02]
   [-3.78197789e-01 -2.35251933e-01 -1.68898940e-01 ... -5.53392665e-03
    -2.51118857e-02 -2.01600082e-02]]

  [[-1.13394991e-01  1.33981347e-01 -5.86231165e-02 ...  2.63671249e-01
     2.81119552e-02 -3.53596061e-02]
   [-7.80977681e-03 -2.07196206e-01 -1.25121728e-01 ...  2.20617522e-02
    -9.34212357e-02  5.65747395e-02]
   [ 1.96131915e-02  1.46014288e-01  1.15708699e-02 ...  4.76849347e-01
     2.67156120e-02 -3.18336710e-02]
   ...
   [-1.11392841e-01  5.68930693e-02 -2.11391728e-02 ...  7.09824264e-02
    -4.77234051e-02  1.90308150e-02]
   [-3.90109271e-01  2.58401781e-01 -8.56613368e-02 ... -6.04862392e-01
     7.58081377e-02 -1.02630749e-01]
   [ 2.47474704e-02  2.53581613e-01 -1.00712068e-01 ... -3.88640404e-01
    -5.25725447e-02 -2.54512276e-03]]

  [[ 2.63392949e-03 -6.83897808e-02 -9.48195979e-02 ... -3.05234478e-03
     1.03208767e-02 -5.23481071e-02]
   [-2.06004735e-02 -1.14749946e-01 -6.15118779e-02 ... -4.14021388e-02
    -2.05072276e-02 -1.19467601e-02]
   [-1.10516353e-02 -9.68469027e-03 -3.67550366e-02 ...  2.72169918e-01
     3.95331383e-02 -8.87369663e-02]
   ...
   [-2.06244007e-01 -3.73552786e-03 -9.10963565e-02 ... -7.45728537e-02
    -8.13080147e-02 -1.72224671e-01]
   [ 9.65903252e-02  2.57115692e-01 -1.18670568e-01 ... -2.88326025e-01
    -1.03982396e-01 -1.00613639e-01]
   [-1.68024749e-01 -5.34596778e-02 -8.08669552e-02 ...  1.13035701e-02
     2.77313832e-02  2.65439283e-02]]

  [[-1.10896640e-01  6.18136395e-03 -2.29290292e-01 ... -2.18182370e-01
    -2.76109241e-02  5.40931225e-02]
   [ 7.78664351e-02 -2.87167728e-01 -1.28231555e-01 ... -3.29304636e-01
    -5.70056699e-02  3.37523818e-02]
   [-3.79575104e-01  1.01378269e-01 -1.03842750e-01 ... -1.56325832e-01
    -1.29155740e-02 -4.66126017e-02]
   ...
   [-1.68960959e-01  5.52754141e-02 -3.94709893e-02 ... -3.60817462e-01
     1.04638552e-02  3.92116606e-04]
   [-1.48919195e-01 -7.91144595e-02 -7.34291449e-02 ... -1.26110697e-02
    -6.94636106e-02 -8.55739117e-02]
   [ 5.89634031e-02 -1.45960599e-03 -6.01376034e-02 ...  2.06334829e-01
     4.97720391e-02 -3.11042480e-02]]

  [[ 4.64868406e-03  3.95321026e-02 -2.17495069e-01 ...  1.77949503e-01
     4.38086949e-02  7.84615949e-02]
   [-2.07167521e-01 -4.12435770e-01 -1.62936017e-01 ... -2.75433421e-01
    -1.88062305e-03 -1.03896104e-01]
   [-4.22926284e-02  2.91302979e-01 -1.52446389e-01 ...  2.09916338e-01
    -2.64764167e-02  5.72934523e-02]
   ...
   [-2.56609678e-01 -3.73798430e-01 -6.58781528e-02 ... -1.82566971e-01
    -8.56934395e-03 -4.47536260e-02]
   [-1.98714361e-01  2.69584924e-01  7.15450123e-02 ... -7.98807479e-03
    -7.76956305e-02 -9.77168307e-02]
   [-1.93331003e-01  6.39843196e-02 -1.44446224e-01 ...  2.63804138e-01
    -1.62468217e-02 -4.19827886e-02]]]


 [[[-1.57313198e-02  7.17727840e-03 -1.25893071e-01 ...  3.04865748e-01
    -6.68922961e-02  5.31580783e-02]
   [ 1.73208863e-01  3.18118483e-02  6.84182048e-02 ... -3.40153188e-01
    -7.54013881e-02 -2.33059041e-02]
   [ 4.69126366e-02 -4.44494514e-03 -1.06010668e-01 ...  1.56846017e-01
    -5.75105995e-02  3.82004585e-03]
   ...
   [ 1.63000286e-01 -2.09625512e-01  4.61644121e-02 ... -2.08854694e-02
    -1.58983245e-02  2.97586666e-03]
   [-5.95673034e-03 -3.69263440e-01 -2.16069475e-01 ...  1.58253565e-01
    -1.34814670e-02 -4.77847122e-02]
   [ 1.90846652e-01 -3.57541263e-01 -7.17328191e-02 ... -8.22192207e-02
    -6.71069045e-03 -3.77684049e-02]]

  [[-1.92498595e-01  3.14499408e-01 -3.00557893e-02 ...  2.01693010e-02
     2.91505661e-02  4.15574498e-02]
   [ 1.79814234e-01 -1.62205264e-01  2.69184671e-02 ...  1.16721736e-02
    -3.37562710e-02 -3.83508950e-02]
   [ 8.10509846e-02  3.87099117e-01 -2.95374487e-02 ...  3.16941202e-01
    -2.90417373e-02 -1.60506628e-02]
   ...
   [-4.80490997e-02  1.30216433e-02 -1.16173297e-01 ...  2.38114744e-01
    -6.95608482e-02 -9.77681577e-02]
   [-2.54758000e-01  4.10753518e-01 -2.25306317e-01 ...  9.60559696e-02
     1.00020379e-01 -3.71817405e-05]
   [ 1.78796753e-01  3.00052669e-02  1.67980064e-02 ...  2.81354673e-02
    -2.59613600e-02 -3.71320471e-02]]

  [[-1.39314324e-01  4.02640477e-02 -7.30599761e-02 ... -1.08458817e-01
    -4.79179882e-02  1.79164652e-02]
   [ 1.11676194e-01 -1.54653713e-01  4.56174351e-02 ... -3.53442281e-02
    -3.92473824e-02  3.78915556e-02]
   [-1.35720193e-01  1.00505494e-01 -1.99888162e-02 ...  1.25085682e-01
    -1.07293352e-02 -8.06196108e-02]
   ...
   [-1.10438004e-01  1.62215997e-02 -6.21780716e-02 ... -2.56453529e-02
     2.75330078e-02 -1.33004144e-01]
   [-1.81478590e-01  1.07080154e-01 -1.55329242e-01 ... -2.43556634e-01
     3.30398344e-02  4.12010867e-03]
   [ 2.09254563e-01  2.92265236e-01 -1.45165445e-02 ...  1.40266076e-01
    -1.59053958e-03 -3.69550250e-02]]

  [[-1.60622016e-01 -9.91468951e-02 -4.50611860e-02 ... -1.60487443e-01
    -3.23296674e-02  5.31462096e-02]
   [ 2.60278493e-01 -3.82208228e-01 -5.34626618e-02 ... -9.72380582e-03
     1.54300574e-02 -3.36472541e-02]
   [-3.57106686e-01 -4.19294909e-02 -1.02964133e-01 ... -1.40647665e-02
     9.81662073e-04 -3.70719796e-03]
   ...
   [ 3.19299959e-02  1.44422846e-02 -1.57644287e-01 ... -1.04333490e-01
     3.00662257e-02 -5.20606386e-03]
   [-2.17819586e-02 -2.08251938e-01 -1.11414433e-01 ...  2.02629060e-01
    -1.31251484e-01 -7.60430023e-02]
   [ 2.35066876e-01 -2.47742698e-01  3.55621390e-02 ... -1.20994411e-01
    -6.22472391e-02 -5.00231143e-03]]

  [[ 1.73262313e-01  8.34330022e-02 -2.50320375e-01 ...  1.63678586e-01
     3.88161391e-02  1.00954510e-01]
   [-2.50508673e-02 -3.85124922e-01 -8.75432119e-02 ... -2.70579040e-01
    -5.12783602e-03 -1.64938748e-01]
   [ 1.58866212e-01  2.63085663e-01 -2.42971376e-01 ...  3.07715744e-01
    -1.95705872e-02  1.07656509e-01]
   ...
   [-3.63764942e-01 -3.22525740e-01 -8.90989415e-03 ...  1.28188670e-01
    -6.39243126e-02 -3.07764933e-02]
   [-7.92480558e-02  4.48825806e-02  2.52659526e-02 ... -5.29922210e-02
    -7.13208243e-02 -1.20834455e-01]
   [ 9.77635086e-02  8.25549290e-02 -1.71655148e-01 ...  2.37655774e-01
     3.02673858e-02 -1.43520646e-02]]]


 [[[-2.41488218e-02  8.13636482e-02 -2.86066197e-02 ...  8.55169669e-02
     1.30417733e-03 -4.25517596e-02]
   [ 9.71939117e-02  2.40760967e-01  4.98365760e-02 ... -3.78341883e-01
     2.21411046e-02  5.40933162e-02]
   [ 2.13283971e-02  1.01482533e-01 -2.13876292e-02 ...  6.64273351e-02
    -5.10326028e-02  2.16064248e-02]
   ...
   [-2.15236709e-01 -2.57272758e-02  3.36499326e-02 ... -4.94094379e-02
    -4.61113304e-02 -2.38056388e-02]
   [ 2.82279640e-01 -4.94622111e-01  4.38565388e-02 ...  3.23711127e-01
    -6.03146069e-02 -2.98133120e-02]
   [ 3.00828576e-01  1.94028571e-01  3.98410596e-02 ...  5.57851344e-02
     5.27974591e-02 -7.00332671e-02]]

  [[-1.28067702e-01  1.64370269e-01 -1.11816369e-01 ...  2.37808779e-01
     2.77037770e-02 -4.20729956e-03]
   [-1.73571080e-01 -9.13426504e-02  5.98815158e-02 ...  9.54778492e-02
    -9.35415253e-02  5.13458177e-02]
   [-9.32240188e-02  3.46725881e-01 -6.34365678e-02 ... -1.35027394e-01
     5.98491393e-02 -3.13902162e-02]
   ...
   [-1.97047040e-01  1.96998954e-01  4.26845104e-02 ...  7.70149752e-02
    -3.09238844e-02 -9.63924527e-02]
   [ 1.99808449e-01  4.05944943e-01 -1.55990034e-01 ...  4.15328801e-01
    -2.68485118e-02 -7.65118375e-02]
   [ 1.70790985e-01  1.69841871e-01 -3.33024040e-02 ...  7.09340051e-02
     3.63389142e-02 -2.23031081e-03]]

  [[-9.02373567e-02  2.24241614e-02 -6.47750273e-02 ... -1.83835790e-01
    -3.05656940e-02  2.42948793e-02]
   [ 2.89462268e-01 -1.46996185e-01  1.78146422e-01 ...  1.16570234e-01
    -9.44252759e-02  4.76573706e-02]
   [-9.53525975e-02 -2.60547958e-02 -8.28414708e-02 ... -1.36734903e-01
    -1.68484896e-02 -7.05002248e-02]
   ...
   [ 1.82078525e-01 -1.71724468e-01  6.16058707e-03 ... -3.34538445e-02
     3.05922478e-02 -1.27521574e-01]
   [-1.62628368e-01  1.53851584e-01 -1.30502820e-01 ... -2.76912212e-01
    -5.89859039e-02 -9.71716866e-02]
   [ 1.99749693e-01  6.45453855e-02 -1.12395644e-01 ... -1.50316909e-01
     1.71324685e-02 -3.91067490e-02]]

  [[-4.26220208e-01 -6.29876740e-03 -5.70420474e-02 ... -4.17000622e-01
     3.93256098e-02  7.79939117e-03]
   [ 5.10724187e-01 -4.29187745e-01 -1.33152798e-01 ...  3.06802869e-01
    -1.22203073e-02 -4.73054238e-02]
   [-4.40112859e-01 -6.24299757e-02 -7.39512891e-02 ... -2.24749833e-01
    -2.24700812e-02 -2.27442198e-02]
   ...
   [ 1.69100538e-01 -3.74221429e-02 -7.84418285e-02 ... -1.42474324e-01
     3.53500992e-02 -2.89911237e-02]
   [-7.98770562e-02 -1.39814824e-01 -1.81236073e-01 ... -1.64689124e-02
    -1.39338285e-01 -9.80572030e-03]
   [ 2.67061144e-01 -1.47441566e-01  3.67979780e-02 ... -1.52364373e-01
     5.07396683e-02 -7.14178430e-03]]

  [[ 1.84388369e-01  1.04498073e-01 -2.78214633e-01 ...  1.35174960e-01
     5.41817062e-02  6.42670318e-02]
   [-1.27939537e-01 -3.72674584e-01  8.10166448e-02 ... -2.67530680e-01
     3.46861705e-02 -6.23922981e-02]
   [ 2.43785173e-01  2.82905996e-01 -2.43385062e-01 ...  2.77237415e-01
    -7.19502866e-02 -3.85875464e-03]
   ...
   [-9.48883444e-02 -4.25065696e-01 -1.24054603e-01 ...  7.57739022e-02
    -8.39321781e-03 -1.55571625e-01]
   [ 1.05320811e-01  3.19200963e-01 -2.57025599e-01 ...  2.14597076e-01
    -3.36522385e-02 -1.81212388e-02]
   [ 4.08985317e-02  4.45472933e-02 -7.64949918e-02 ...  2.00680941e-01
     5.72651401e-02  5.31390347e-02]]]


 [[[-8.55119750e-02  8.36502612e-02 -9.39562768e-02 ... -1.26238838e-01
     6.50800671e-03  4.99476045e-02]
   [-5.49261048e-02 -4.16324548e-02  1.19788267e-01 ...  4.03988391e-01
    -2.90462244e-02 -5.75326830e-02]
   [ 1.06331641e-02  1.03685126e-01 -4.22392860e-02 ... -1.12413988e-02
     3.73297259e-02 -1.85836907e-02]
   ...
   [-2.59073883e-01  4.88608293e-02  3.65301557e-02 ... -6.76963925e-02
    -7.52416393e-03 -4.83263694e-02]
   [ 1.88799780e-02 -9.04236436e-02 -1.82722822e-01 ...  7.95567259e-02
    -1.57278888e-02 -6.57678172e-02]
   [-5.95327467e-03  2.14629367e-01 -2.79693622e-02 ...  1.52604759e-01
    -4.12374176e-02 -7.32799945e-03]]

  [[-3.12349331e-02  2.01131910e-01 -4.44473140e-02 ...  7.88380951e-03
     1.48969414e-02  3.17736939e-02]
   [-3.51354301e-01  2.90228892e-02  1.75402686e-01 ...  1.52281031e-01
    -8.08635280e-02 -4.82135378e-02]
   [-2.57148258e-02  1.27519503e-01 -6.57368228e-02 ... -5.71610406e-02
     7.06967786e-02 -1.12002105e-01]
   ...
   [ 9.43483859e-02  1.23904005e-01  8.40044394e-02 ... -2.55016983e-01
    -3.04224789e-02 -4.10850272e-02]
   [ 2.58861631e-01  2.52683759e-01 -9.73515809e-02 ...  1.23944655e-01
    -5.10785282e-02 -4.51525152e-02]
   [ 1.15890615e-01  1.93756104e-01 -9.00663733e-02 ... -1.65122017e-01
     1.80325713e-02 -1.73371024e-02]]

  [[-6.34276420e-02 -5.47055602e-02 -1.57283947e-01 ... -6.38281852e-02
     2.52592042e-02 -1.08435238e-02]
   [-1.22111384e-02 -1.47969753e-01  1.51675686e-01 ...  2.17729732e-01
     2.82946788e-02 -2.30885800e-02]
   [-1.83695316e-01 -1.49012851e-02 -1.10469803e-01 ... -3.86494538e-03
    -2.42817029e-02 -5.18276654e-02]
   ...
   [-1.34203983e-02 -2.17929408e-02  9.76063684e-02 ... -4.72279303e-02
    -6.72323406e-02 -5.08572720e-02]
   [ 3.01514030e-01  1.71220094e-01 -1.23321032e-02 ... -3.23179007e-01
    -8.01855251e-02 -6.66233376e-02]
   [-2.61357933e-01 -8.55469629e-02 -6.65389970e-02 ...  4.16207194e-01
     4.51090671e-02 -2.28572581e-02]]

  [[-5.66893481e-02 -1.25564886e-02 -1.60404548e-01 ... -2.59682406e-02
    -2.74058226e-02 -5.69638424e-03]
   [ 9.46480110e-02 -2.51121014e-01 -2.13046521e-01 ...  2.39634708e-01
     2.86774021e-02 -8.92357677e-02]
   [-2.42703021e-01  1.59002781e-01 -9.29639935e-02 ... -5.23765907e-02
     1.60501022e-02  6.12435527e-02]
   ...
   [ 2.84409989e-02  8.04617926e-02 -1.74856380e-01 ...  2.13737205e-01
    -6.58836663e-02 -3.00203217e-03]
   [-1.04096480e-01 -9.88131985e-02  2.59538963e-02 ...  2.58763075e-01
    -4.10945043e-02 -3.49018686e-02]
   [-7.50831962e-02 -2.03626007e-01 -1.07792214e-01 ...  1.32332355e-01
     5.04980348e-02  1.50414491e-02]]

  [[ 5.47285788e-02  1.45638362e-01 -2.98082054e-01 ...  2.52786219e-01
    -7.34816445e-03  4.45215069e-02]
   [-1.34901583e-01 -2.21153319e-01 -1.83376241e-02 ... -1.61063164e-01
    -2.45328583e-02 -8.51248056e-02]
   [ 1.30668217e-02  2.39733532e-01 -1.44184947e-01 ...  1.67161390e-01
    -6.94150180e-02  1.33852866e-02]
   ...
   [-1.91925298e-02 -1.46210536e-01 -1.37954215e-02 ... -2.24351466e-01
     4.51967008e-02 -2.48614922e-02]
   [-1.39163751e-02  3.54692817e-01 -3.66140418e-02 ...  1.48924580e-02
    -5.77769727e-02 -1.23443149e-01]
   [-3.40454988e-02 -8.13853815e-02 -5.42894825e-02 ... -3.04312944e-01
     6.62602205e-03  2.62787063e-02]]]


 [[[-1.21933512e-01 -1.76026076e-02  3.75994816e-02 ... -4.00594592e-01
     4.42917272e-03  1.61219556e-02]
   [-1.92512676e-01 -3.13718975e-01  1.60681516e-01 ...  6.49403989e-01
     5.48084092e-04 -2.35272869e-02]
   [-7.66639560e-02  3.26371938e-01  8.21066927e-03 ... -4.48999792e-01
     1.04341991e-02  4.40631770e-02]
   ...
   [ 2.27530021e-02 -2.59067137e-02  6.77335560e-02 ...  3.12513113e-01
     4.43388037e-02 -5.52786440e-02]
   [-1.03065051e-01 -9.74412188e-02 -1.49653867e-01 ... -1.91723540e-01
     2.34769366e-04 -7.32795373e-02]
   [ 1.84130464e-02  2.47602701e-01 -4.54702973e-02 ...  4.08821255e-01
     5.57578243e-02 -5.18678389e-02]]

  [[-3.74215879e-02  7.25646392e-02 -1.45315647e-01 ... -6.47336021e-02
    -5.55669665e-02 -5.36284819e-02]
   [-3.21254492e-01 -4.89536636e-02  2.98980325e-01 ... -2.29481943e-02
    -1.56899405e-04  3.46091054e-02]
   [-1.62268013e-01  4.51741368e-02 -1.51743174e-01 ... -6.98733926e-02
     4.18041460e-02 -1.10606767e-01]
   ...
   [-1.60462316e-02  1.17407575e-01  9.74379405e-02 ...  1.18581556e-01
    -2.04350259e-02 -9.74393263e-02]
   [-8.26315582e-02  4.04209904e-02  8.12181905e-02 ... -4.15531546e-02
    -1.80750992e-03 -2.71350238e-02]
   [-2.34005470e-02  2.39602383e-02 -2.98245456e-02 ...  2.39261650e-02
     1.70504861e-02 -1.81788485e-03]]

  [[-6.58874065e-02  4.61379215e-02 -8.87916163e-02 ... -2.72700097e-02
    -2.77334787e-02 -1.52021712e-02]
   [-1.92981973e-01  7.92662278e-02 -1.63322352e-02 ...  1.31760687e-01
    -6.68114945e-02  1.25372754e-02]
   [-2.85375953e-01  3.73922855e-01 -5.57311289e-02 ... -1.30084259e-02
    -4.82873991e-04  6.61042240e-03]
   ...
   [-6.11334853e-03  6.41269833e-02 -1.07577275e-02 ...  1.34973764e-01
    -2.84129148e-03  5.32955863e-02]
   [-1.48732007e-01  1.72014862e-01 -2.54948456e-02 ... -6.35079145e-01
    -7.63897598e-02 -1.53082117e-01]
   [ 3.97398509e-02 -1.65304616e-02 -9.84677970e-02 ...  1.57527253e-01
     3.95714901e-02 -4.72913757e-02]]

  [[ 1.22355632e-01  2.90500224e-02 -2.01802343e-01 ...  2.22724840e-01
    -4.96745929e-02  9.77908000e-02]
   [-3.37443426e-02 -1.48203388e-01 -2.59254217e-01 ...  5.03613174e-01
     4.36631590e-02  1.16763143e-02]
   [ 8.50068592e-03  1.19327843e-01 -3.95702794e-02 ...  2.58424014e-01
    -7.84106106e-02  4.71460931e-02]
   ...
   [ 2.65148468e-03  1.09378383e-01 -1.62993714e-01 ...  4.07382607e-01
    -3.50250229e-02  2.03008391e-02]
   [-3.25221568e-02  1.17615707e-01 -1.82740223e-02 ...  1.13196827e-01
    -3.54076829e-03 -7.10372487e-03]
   [-2.49907617e-02 -1.86493978e-01 -1.88807864e-02 ...  2.12039724e-02
    -4.57952917e-02 -6.41153678e-02]]

  [[ 1.80305570e-01  1.91054821e-01 -2.42093429e-01 ...  3.26701492e-01
     9.79539379e-03  5.31392135e-02]
   [-1.50486380e-01 -2.58749604e-01 -2.32568905e-02 ... -8.73871371e-02
     4.63546328e-02 -8.16816613e-02]
   [ 5.21637797e-02  2.30339468e-01 -2.33876064e-01 ...  3.19002390e-01
     1.01261251e-02  7.62595534e-02]
   ...
   [-1.47606894e-01  3.00615970e-02  1.33786099e-02 ... -1.65504336e-01
     3.81478257e-02  2.97914725e-02]
   [-7.46718943e-02  1.93655550e-01  3.43511812e-02 ...  1.57302395e-01
    -1.07603222e-01 -5.30324951e-02]
   [-8.19614455e-02 -1.02641255e-01  2.54677795e-02 ... -2.10076377e-01
    -1.40105886e-02  2.31703720e-03]]]]
