[[[[-1.69409931e-01  2.27476820e-01 -3.93304169e-01 ...  7.01817214e-01
    -2.72847235e-01 -2.83350825e-01]
   [-2.97640830e-01  3.49101514e-01 -3.94419193e-01 ...  6.90671444e-01
     7.16734491e-03 -3.27446133e-01]
   [-1.66457891e-01  9.75396782e-02 -1.45666301e-01 ...  8.94312382e-01
    -4.99053299e-02 -3.19633394e-01]]

  [[ 8.28006566e-02  3.21531743e-01 -1.88415706e-01 ...  2.63714492e-01
    -3.83066326e-01 -1.45395175e-01]
   [ 7.89750516e-02  3.84090394e-01 -7.97392800e-02 ... -1.48856053e-02
    -1.09531291e-01 -7.82978982e-02]
   [ 8.34393725e-02  7.09746704e-02 -8.42755064e-02 ...  2.05321625e-01
    -1.19268201e-01 -1.13091953e-01]]

  [[ 2.25880202e-02  1.29881084e-01 -6.03016764e-02 ...  9.90099013e-02
    -2.26034969e-01 -5.83661832e-02]
   [-9.57478955e-03  2.43081227e-01 -1.29952610e-01 ... -2.87827849e-01
    -1.26186267e-01 -1.22008622e-01]
   [ 6.38569519e-02  4.77220304e-02 -9.58479941e-02 ... -1.71035960e-01
    -7.94714242e-02 -1.15103230e-01]]

  [[-1.92315608e-01 -6.61578216e-03 -1.56774953e-01 ...  8.06503147e-02
     1.28581256e-01  3.00291982e-02]
   [-2.54259825e-01  1.12361386e-01 -2.09712058e-01 ... -3.66028100e-01
     2.69402564e-01  1.48998545e-02]
   [ 1.45891597e-02 -1.52333230e-01 -1.24776281e-01 ... -1.91600084e-01
     2.13801593e-01 -6.86660856e-02]]

  [[-8.55606422e-02 -4.35926653e-02 -1.11134715e-01 ...  4.06087965e-01
     5.36734343e-01 -1.26415789e-01]
   [-7.95933679e-02  2.67227348e-02 -1.09306566e-01 ... -1.20587042e-03
     6.76635087e-01 -2.62932777e-01]
   [ 6.62906691e-02 -2.85141051e-01 -5.34775741e-02 ...  1.44458205e-01
     5.63247204e-01 -2.77814955e-01]]]


 [[[ 4.24662745e-03  9.87069756e-02 -2.04655007e-01 ...  2.97462285e-01
    -1.19542532e-01 -4.60048169e-02]
   [-6.79931119e-02  1.49189994e-01 -2.46140227e-01 ...  2.40419298e-01
     2.93957982e-02 -1.05200723e-01]
   [ 7.37265274e-02 -1.39306724e-01 -3.28420512e-02 ...  3.61970216e-01
     9.72025882e-05 -1.33659095e-01]]

  [[ 1.88621674e-02  1.47338286e-01 -1.66650295e-01 ...  1.92978650e-01
    -2.53949851e-01 -1.66654617e-01]
   [-6.79654106e-02  2.24619448e-01 -2.53354281e-01 ...  7.72465616e-02
     3.36882472e-02 -1.20642029e-01]
   [ 3.64044309e-02  1.63591281e-02 -1.86015859e-01 ...  2.11056650e-01
    -1.49989575e-02 -2.04749063e-01]]

  [[ 3.70350853e-02  9.96943712e-02  8.85129496e-02 ... -1.32309031e-02
    -3.79431844e-01 -1.11029752e-01]
   [-7.46020824e-02  3.52609418e-02  2.05491893e-02 ... -4.28686738e-01
    -1.16080537e-01 -9.02650356e-02]
   [ 3.74258161e-02 -2.85255551e-01 -2.60173231e-02 ... -1.99931845e-01
    -2.80237764e-01 -1.07161529e-01]]

  [[-1.28938481e-01  5.77436090e-02 -3.30935083e-02 ... -1.19888298e-01
     1.92411304e-01 -1.63317338e-01]
   [-3.21485609e-01  2.47981343e-02 -9.60638598e-02 ... -3.62566084e-01
     2.05152079e-01 -1.82673037e-01]
   [ 3.06615420e-02 -2.15784475e-01 -6.45449683e-02 ... -2.72810638e-01
     7.14367926e-02 -1.90355986e-01]]

  [[ 2.73626298e-02 -1.75784722e-01 -5.85634559e-02 ...  2.78330177e-01
     4.84978229e-01 -2.00557232e-01]
   [-1.67497993e-02 -5.63535094e-02 -3.78253572e-02 ...  1.86078921e-02
     4.31012601e-01 -2.07670540e-01]
   [-3.50583233e-02 -2.56260306e-01  2.15482563e-02 ...  1.71393156e-01
     3.56363654e-01 -3.20057213e-01]]]


 [[[-9.42656472e-02 -4.53373492e-02 -1.23708889e-01 ... -9.91062671e-02
    -1.20027535e-01 -9.47715566e-02]
   [-1.54214678e-02  1.83278635e-01 -7.31569529e-02 ...  8.88342559e-02
     7.13025173e-03 -1.78089246e-01]
   [ 1.63416594e-01 -1.80597544e-01  1.07629642e-01 ... -2.63411496e-02
    -1.77941069e-01 -4.43384089e-02]]

  [[ 2.45345589e-02 -1.24320604e-01 -9.96364132e-02 ...  1.28736243e-01
    -7.06493258e-02 -1.92069829e-01]
   [-1.46300092e-01 -9.57794301e-03 -1.47160247e-01 ...  1.91148788e-01
     1.28260583e-01 -2.23674685e-01]
   [ 1.23106744e-02 -3.28127861e-01 -8.60356539e-02 ...  2.79231101e-01
    -3.76452766e-02 -2.05253735e-01]]

  [[-3.16667035e-02 -5.02181798e-02  7.79915601e-02 ...  6.23031668e-02
    -2.68916428e-01 -3.11489999e-01]
   [-7.42037520e-02 -2.53616452e-01  2.81845592e-03 ... -7.95962438e-02
    -2.30799600e-01 -3.23653400e-01]
   [-8.37449878e-02 -4.25219148e-01  1.44321948e-01 ...  6.40603080e-02
    -2.71695524e-01 -2.99760818e-01]]

  [[-2.76136380e-02  8.21861252e-02  7.69445971e-02 ... -9.02623124e-03
     4.27926965e-02 -1.20316684e-01]
   [-1.19247213e-01 -1.01955980e-01  1.70630105e-02 ... -2.47792363e-01
     4.75545153e-02 -1.19214408e-01]
   [-1.08836060e-02 -2.79071778e-01  2.08414011e-02 ... -9.62292850e-02
    -1.21099710e-01 -2.10685834e-01]]

  [[-2.93513015e-02  3.41299325e-02  3.57574224e-02 ...  9.21128392e-02
     2.89978445e-01  5.96364103e-02]
   [-9.82812196e-02 -1.51649788e-02  1.71324778e-02 ... -2.31333017e-01
     3.34335476e-01  1.05828028e-02]
   [ 8.91449954e-03 -3.54955554e-01  1.75713003e-02 ... -1.04416758e-01
     2.61962295e-01 -1.14563242e-01]]]


 [[[-3.08065683e-01  1.38230741e-01 -4.04227257e-01 ... -7.22672865e-02
     2.73902081e-02 -1.03401236e-01]
   [-4.19379145e-01  4.17151719e-01 -3.41535062e-01 ... -1.11684334e-02
    -1.45304903e-01 -1.28577396e-01]
   [-1.24842979e-01  3.16188276e-01 -1.84467897e-01 ... -1.08370885e-01
    -4.25084621e-01 -1.02427110e-01]]

  [[ 5.50863147e-02  8.99523962e-03 -4.20035571e-02 ... -1.61130112e-02
    -1.52009428e-01 -1.03927366e-01]
   [ 3.35922977e-03  7.42368847e-02 -1.49918109e-01 ...  1.56372332e-03
    -1.17561065e-01 -1.49714112e-01]
   [-7.93493986e-02  5.19441208e-03 -2.62800101e-02 ...  1.34605780e-01
    -1.53461903e-01 -1.83959439e-01]]

  [[-2.77854744e-02 -2.46510610e-01  8.37835371e-02 ...  4.13383283e-02
    -2.76930690e-01 -2.88272239e-02]
   [-3.10010668e-02 -5.08790731e-01 -2.49269921e-02 ...  1.37547478e-02
    -1.39714852e-01 -1.06044188e-01]
   [ 5.19950241e-02 -7.71553576e-01  1.67007416e-01 ...  5.15790656e-02
    -4.55999881e-01  5.66424504e-02]]

  [[ 8.60172883e-02 -8.58715698e-02 -4.30040061e-03 ...  1.28602356e-01
    -3.85926478e-02  1.29368275e-01]
   [-1.92276880e-01 -3.20029706e-01 -5.99331707e-02 ... -1.19603314e-01
    -1.39649153e-01  8.00816119e-02]
   [ 1.34082865e-02 -4.56832349e-01  1.00514524e-01 ...  4.89583798e-02
    -3.40776265e-01  8.47977996e-02]]

  [[-3.68051939e-02 -3.98698205e-04 -4.30407450e-02 ... -7.96189606e-02
     1.69794440e-01  3.13616365e-01]
   [-1.41371563e-01 -1.71103910e-01 -1.96310520e-01 ... -2.59739965e-01
     9.44172964e-02  2.42216557e-01]
   [ 1.35933580e-02 -3.52693290e-01 -1.04572631e-01 ... -1.80850431e-01
    -1.21694110e-01  1.35150298e-01]]]


 [[[-3.94625008e-01  1.40372217e-01 -4.08847749e-01 ... -1.73373312e-01
     1.39933750e-01  1.52874952e-02]
   [-6.63026750e-01  2.21740812e-01 -4.59349394e-01 ... -2.24314824e-01
     1.55483708e-01 -1.37868166e-01]
   [-4.13018614e-01  1.41985863e-01 -1.75383553e-01 ... -3.01068991e-01
    -8.97009149e-02 -1.72742277e-01]]

  [[-3.52929197e-02  9.13264379e-02 -6.69385865e-02 ...  5.90140140e-03
    -1.09314084e-01  5.11313695e-03]
   [-8.81760716e-02  1.49409950e-01  2.64792703e-02 ... -1.78651944e-01
    -1.36400282e-01 -6.15085401e-02]
   [-2.20253002e-02 -5.67217357e-02  8.31828862e-02 ... -9.33161825e-02
    -2.77150869e-01 -1.00805335e-01]]

  [[ 1.31770447e-02  1.11226164e-01  7.85058960e-02 ... -4.23413217e-02
     7.48361573e-02  2.66696960e-01]
   [-1.04722202e-01 -1.82348698e-01 -8.67528692e-02 ... -1.47819877e-01
     5.87281771e-02  1.81416377e-01]
   [ 9.78516713e-02 -3.72172654e-01  5.95898144e-02 ... -2.38275602e-01
    -1.75237983e-01  1.25968471e-01]]

  [[-5.55574112e-02  1.56996980e-01 -3.66018787e-02 ...  8.39163065e-02
     5.14453650e-02  4.35741752e-01]
   [-2.22350493e-01 -7.36941323e-02  1.50077865e-02 ... -1.63226485e-01
     2.50189025e-02  4.17619586e-01]
   [-6.95485249e-02 -2.96011657e-01  1.51116848e-01 ... -1.59885958e-01
    -1.04932830e-01  4.00879145e-01]]

  [[-6.88044354e-02  1.64075583e-01 -1.42167285e-01 ...  2.35425234e-01
    -9.88565609e-02  3.47068042e-01]
   [-1.40136331e-01  1.52275041e-01 -2.02698618e-01 ... -9.36480463e-02
    -1.84273615e-01  3.52451980e-01]
   [-4.71729934e-02 -9.98856500e-02 -1.22529261e-01 ... -1.81883961e-01
    -3.26798320e-01  2.18986273e-01]]]]
