[[ 1.9283323e-01]
 [ 4.8541230e-01]
 [ 5.7061684e-01]
 [-9.9209768e-01]
 [ 2.4208341e-02]
 [ 7.2576100e-01]
 [ 3.9513785e-01]
 [ 7.3844361e-01]
 [-5.2515298e-01]
 [-1.7994213e-03]
 [ 1.0048231e+00]
 [-6.6972175e-04]
 [-7.5558770e-01]
 [ 2.1375330e-01]
 [ 2.2501326e-03]
 [ 7.2639495e-01]
 [-2.5575462e-01]
 [ 4.4304031e-01]
 [ 4.1547930e-01]
 [-1.0665785e+00]
 [ 5.6640184e-01]
 [ 1.6365978e-01]
 [ 8.5611647e-01]
 [-1.3713372e-01]
 [ 6.2014163e-01]
 [ 8.5306221e-01]
 [-2.2849104e-01]
 [-4.0314263e-01]
 [ 6.3170582e-01]
 [ 4.3313026e-01]
 [ 5.2757227e-01]
 [-3.2800874e-01]
 [ 2.2677842e-01]
 [ 6.4154059e-01]
 [ 4.4427553e-01]
 [-6.4148313e-01]
 [-1.7828582e-01]
 [ 1.9742349e-01]
 [-3.0145183e-02]
 [-5.1372010e-01]
 [ 5.2940243e-01]
 [-1.8396771e-02]
 [-2.8766772e-01]
 [-6.1695915e-01]
 [-3.1116626e-01]
 [ 1.3027024e-02]
 [ 3.2933420e-03]
 [ 1.3751477e-01]
 [-8.8509858e-01]
 [-3.4230657e-02]
 [ 4.7790036e-01]
 [ 1.0640436e-01]
 [ 4.4609112e-01]
 [-3.2370761e-01]
 [ 1.2730601e-01]
 [ 2.1345573e-02]
 [ 1.1825915e-01]
 [-8.3948570e-01]
 [-6.6900575e-01]
 [-4.0563034e-05]
 [ 6.4775449e-01]
 [ 5.1197463e-01]
 [ 4.6397707e-01]
 [ 7.0383269e-01]]
